svm_type c_svc
kernel_type linear
nr_class 2
total_sv 22
rho -2.545709699994723
label -1 1
nr_sv 10 12
SV
1.0 1:0.00129366106080207 2:1.0 3:190.1818181818182 4:140.0 5:793.0 6:113.0 
1.0 1:0.001618122977346278 2:1.0 3:165.9454545454545 4:91.0 5:503.0 6:85.0 
1.0 1:0.00273972602739726 2:2.0 3:179.5945945945946 4:10.0 5:175.0 6:26.0 
1.0 1:0.01805054151624549 2:5.0 3:151.6486486486486 4:17.0 5:133.0 6:36.0 
1.0 1:0.0115606936416185 2:4.0 3:115.6904761904762 4:31.0 5:261.0 6:52.0 
1.0 1:0.01895734597156398 2:4.0 3:136.96 4:10.0 5:43.0 6:12.0 
1.0 1:0.00425531914893617 2:3.0 3:219.0 4:6.0 5:93.0 6:5.0 
0.9482497991174355 1:0.004273504273504274 2:2.0 3:219.0 4:6.0 5:93.0 6:5.0 
0.857365933913018 1:0.002257336343115124 2:2.0 3:454.5052631578947 4:114.0 5:533.0 6:109.0 
1.0 1:0.006711409395973154 2:6.0 3:460.7234042553191 4:108.0 5:518.0 6:102.0 
-0.2300698238309182 1:0.01011804384485666 2:6.0 3:66.48507462686567 4:91.0 5:266.0 6:57.0 
-1.0 1:0.004555808656036446 2:2.0 3:154.1587301587302 4:22.0 5:174.0 6:48.0 
-1.0 1:0.008438818565400843 2:4.0 3:204.8358208955224 4:26.0 5:395.0 6:80.0 
-1.0 1:0.009661835748792272 2:4.0 3:174.9782608695652 4:25.0 5:241.0 6:41.0 
-1.0 1:0.007648183556405354 2:4.0 3:101.9230769230769 4:180.0 5:423.0 6:66.0 
-1.0 1:0.004291845493562232 2:2.0 3:97.73170731707317 4:177.0 5:350.0 6:57.0 
-0.9431806962894916 1:0.004444444444444444 2:2.0 3:464.75 4:4.0 5:350.0 6:12.0 
-1.0 1:0.00892857142857143 2:3.0 3:265.12 4:2.0 5:137.0 6:33.0 
-0.4890853382818587 1:0.006928406466512702 2:3.0 3:443.1153846153846 4:7.0 5:478.0 6:66.0 
-0.14327987462819292 1:0.003588516746411483 2:3.0 3:1241.0 4:16.0 5:524.0 6:45.0 
-1.0 1:0.005190311418685121 2:3.0 3:198.873417721519 4:33.0 5:340.0 6:93.0 
-1.0 1:0.005928853754940711 2:3.0 3:171.2950819672131 4:21.0 5:304.0 6:48.0 
